digraph Tree {
node [shape=box, style="filled, rounded", color="black", fontname=helvetica] ;
edge [fontname=helvetica] ;
0 [label=<sepal length (cm) &le; 0.5<br/>gini = 0.4334<br/>samples = 63<br/>value = [20, 43]<br/>class = versicolor>, fillcolor="#399de588"] ;
1 [label=<sepal width (cm) &le; 58.0<br/>gini = 0.4709<br/>samples = 29<br/>value = [18, 11]<br/>class = setosa>, fillcolor="#e5813963"] ;
0 -> 1 [labeldistance=2.5, labelangle=45, headlabel="True"] ;
2 [label=<sepal width (cm) &le; 25.5<br/>gini = 0.4986<br/>samples = 19<br/>value = [10, 9]<br/>class = setosa>, fillcolor="#e5813919"] ;
1 -> 2 ;
3 [label=<gini = 0.0<br/>samples = 3<br/>value = [3, 0]<br/>class = setosa>, fillcolor="#e58139ff"] ;
2 -> 3 ;
4 [label=<sepal width (cm) &le; 54.5<br/>gini = 0.4922<br/>samples = 16<br/>value = [7, 9]<br/>class = versicolor>, fillcolor="#399de539"] ;
2 -> 4 ;
5 [label=<sepal width (cm) &le; 52.0<br/>gini = 0.5<br/>samples = 14<br/>value = [7, 7]<br/>class = setosa>, fillcolor="#e5813900"] ;
4 -> 5 ;
6 [label=<sepal width (cm) &le; 30.5<br/>gini = 0.4444<br/>samples = 9<br/>value = [3, 6]<br/>class = versicolor>, fillcolor="#399de57f"] ;
5 -> 6 ;
7 [label=<gini = 0.0<br/>samples = 1<br/>value = [0, 1]<br/>class = versicolor>, fillcolor="#399de5ff"] ;
6 -> 7 ;
8 [label=<sepal width (cm) &le; 38.0<br/>gini = 0.4688<br/>samples = 8<br/>value = [3, 5]<br/>class = versicolor>, fillcolor="#399de566"] ;
6 -> 8 ;
9 [label=<gini = 0.0<br/>samples = 1<br/>value = [1, 0]<br/>class = setosa>, fillcolor="#e58139ff"] ;
8 -> 9 ;
10 [label=<sepal width (cm) &le; 43.5<br/>gini = 0.4082<br/>samples = 7<br/>value = [2, 5]<br/>class = versicolor>, fillcolor="#399de599"] ;
8 -> 10 ;
11 [label=<gini = 0.0<br/>samples = 2<br/>value = [0, 2]<br/>class = versicolor>, fillcolor="#399de5ff"] ;
10 -> 11 ;
12 [label=<sepal width (cm) &le; 46.5<br/>gini = 0.48<br/>samples = 5<br/>value = [2, 3]<br/>class = versicolor>, fillcolor="#399de555"] ;
10 -> 12 ;
13 [label=<gini = 0.0<br/>samples = 1<br/>value = [1, 0]<br/>class = setosa>, fillcolor="#e58139ff"] ;
12 -> 13 ;
14 [label=<sepal width (cm) &le; 50.5<br/>gini = 0.375<br/>samples = 4<br/>value = [1, 3]<br/>class = versicolor>, fillcolor="#399de5aa"] ;
12 -> 14 ;
15 [label=<gini = 0.0<br/>samples = 2<br/>value = [0, 2]<br/>class = versicolor>, fillcolor="#399de5ff"] ;
14 -> 15 ;
16 [label=<gini = 0.5<br/>samples = 2<br/>value = [1, 1]<br/>class = setosa>, fillcolor="#e5813900"] ;
14 -> 16 ;
17 [label=<sepal width (cm) &le; 53.5<br/>gini = 0.32<br/>samples = 5<br/>value = [4, 1]<br/>class = setosa>, fillcolor="#e58139bf"] ;
5 -> 17 ;
18 [label=<gini = 0.4444<br/>samples = 3<br/>value = [2, 1]<br/>class = setosa>, fillcolor="#e581397f"] ;
17 -> 18 ;
19 [label=<gini = 0.0<br/>samples = 2<br/>value = [2, 0]<br/>class = setosa>, fillcolor="#e58139ff"] ;
17 -> 19 ;
20 [label=<gini = 0.0<br/>samples = 2<br/>value = [0, 2]<br/>class = versicolor>, fillcolor="#399de5ff"] ;
4 -> 20 ;
21 [label=<sepal width (cm) &le; 65.5<br/>gini = 0.32<br/>samples = 10<br/>value = [8, 2]<br/>class = setosa>, fillcolor="#e58139bf"] ;
1 -> 21 ;
22 [label=<gini = 0.0<br/>samples = 5<br/>value = [5, 0]<br/>class = setosa>, fillcolor="#e58139ff"] ;
21 -> 22 ;
23 [label=<sepal width (cm) &le; 69.0<br/>gini = 0.48<br/>samples = 5<br/>value = [3, 2]<br/>class = setosa>, fillcolor="#e5813955"] ;
21 -> 23 ;
24 [label=<gini = 0.0<br/>samples = 1<br/>value = [0, 1]<br/>class = versicolor>, fillcolor="#399de5ff"] ;
23 -> 24 ;
25 [label=<sepal width (cm) &le; 73.0<br/>gini = 0.375<br/>samples = 4<br/>value = [3, 1]<br/>class = setosa>, fillcolor="#e58139aa"] ;
23 -> 25 ;
26 [label=<gini = 0.0<br/>samples = 2<br/>value = [2, 0]<br/>class = setosa>, fillcolor="#e58139ff"] ;
25 -> 26 ;
27 [label=<sepal width (cm) &le; 78.5<br/>gini = 0.5<br/>samples = 2<br/>value = [1, 1]<br/>class = setosa>, fillcolor="#e5813900"] ;
25 -> 27 ;
28 [label=<gini = 0.0<br/>samples = 1<br/>value = [0, 1]<br/>class = versicolor>, fillcolor="#399de5ff"] ;
27 -> 28 ;
29 [label=<gini = 0.0<br/>samples = 1<br/>value = [1, 0]<br/>class = setosa>, fillcolor="#e58139ff"] ;
27 -> 29 ;
30 [label=<sepal width (cm) &le; 68.5<br/>gini = 0.1107<br/>samples = 34<br/>value = [2, 32]<br/>class = versicolor>, fillcolor="#399de5ef"] ;
0 -> 30 [labeldistance=2.5, labelangle=-45, headlabel="False"] ;
31 [label=<sepal width (cm) &le; 21.5<br/>gini = 0.0605<br/>samples = 32<br/>value = [1, 31]<br/>class = versicolor>, fillcolor="#399de5f7"] ;
30 -> 31 ;
32 [label=<gini = 0.4444<br/>samples = 3<br/>value = [1, 2]<br/>class = versicolor>, fillcolor="#399de57f"] ;
31 -> 32 ;
33 [label=<gini = 0.0<br/>samples = 29<br/>value = [0, 29]<br/>class = versicolor>, fillcolor="#399de5ff"] ;
31 -> 33 ;
34 [label=<sepal width (cm) &le; 75.0<br/>gini = 0.5<br/>samples = 2<br/>value = [1, 1]<br/>class = setosa>, fillcolor="#e5813900"] ;
30 -> 34 ;
35 [label=<gini = 0.0<br/>samples = 1<br/>value = [1, 0]<br/>class = setosa>, fillcolor="#e58139ff"] ;
34 -> 35 ;
36 [label=<gini = 0.0<br/>samples = 1<br/>value = [0, 1]<br/>class = versicolor>, fillcolor="#399de5ff"] ;
34 -> 36 ;
}